digraph Tree {
node [shape=box, style="filled", color="black", fontname="helvetica"] ;
edge [fontname="helvetica"] ;
0 [label="petal width (cm) <= 0.8\ngini = 0.666\nsamples = 100\nvalue = [31, 35, 34]\nclass = 1", fillcolor="#fcfffd"] ;
1 [label="gini = 0.0\nsamples = 31\nvalue = [31, 0, 0]\nclass = 0", fillcolor="#e58139"] ;
0 -> 1 [labeldistance=2.5, labelangle=45, headlabel="True"] ;
2 [label="petal width (cm) <= 1.75\ngini = 0.5\nsamples = 69\nvalue = [0, 35, 34]\nclass = 1", fillcolor="#f9fefb"] ;
0 -> 2 [labeldistance=2.5, labelangle=-45, headlabel="False"] ;
3 [label="petal length (cm) <= 5.35\ngini = 0.188\nsamples = 38\nvalue = [0, 34, 4]\nclass = 1", fillcolor="#50e890"] ;
2 -> 3 ;
4 [label="gini = 0.105\nsamples = 36\nvalue = [0, 34, 2]\nclass = 1", fillcolor="#45e788"] ;
3 -> 4 ;
5 [label="gini = 0.0\nsamples = 2\nvalue = [0, 0, 2]\nclass = 2", fillcolor="#8139e5"] ;
3 -> 5 ;
6 [label="petal length (cm) <= 4.85\ngini = 0.062\nsamples = 31\nvalue = [0, 1, 30]\nclass = 2", fillcolor="#8540e6"] ;
2 -> 6 ;
7 [label="gini = 0.444\nsamples = 3\nvalue = [0, 1, 2]\nclass = 2", fillcolor="#c09cf2"] ;
6 -> 7 ;
8 [label="gini = 0.0\nsamples = 28\nvalue = [0, 0, 28]\nclass = 2", fillcolor="#8139e5"] ;
6 -> 8 ;
}